function [Y,Xf,Af] = tp1084cb08_fd76_4606_985f_a1d9f4fb96f7(X,~,~)
%TP1084CB08_FD76_4606_985F_A1D9F4FB96F7 neural network simulation function.
%
% Generated by Neural Network Toolbox function genFunction, 05-Sep-2017 03:39:09.
% 
% [Y] = tp1084cb08_fd76_4606_985f_a1d9f4fb96f7(X,~,~) takes these arguments:
% 
%   X = 1xTS cell, 1 inputs over TS timsteps
%   Each X{1,ts} = 20xQ matrix, input #1 at timestep ts.
% 
% and returns:
%   Y = 1xTS cell of 1 outputs over TS timesteps.
%   Each Y{1,ts} = 1xQ matrix, output #1 at timestep ts.
% 
% where Q is number of samples (or series) and TS is the number of timesteps.

%#ok<*RPMT0>

  % ===== NEURAL NETWORK CONSTANTS =====
  
  % Input 1
  x1_step1_xoffset = [-6506.15769134605;-1968.46879957595;-1377.69545894784;-1183.76616946853;-711.642931835562;-672.522601966802;-447.378118638327;-450.68658711171;-682.765477573456;-606.219316949413;-622.812481590524;-410.039334332748;-387.578117402331;-429.961560001107;-321.305329962876;-359.072122656288;-277.037336897483;-301.078315473958;-400.794724948389;-285.384637074683];
  x1_step1_gain = [0.000244911356138662;0.0005078376651042;0.000859080031338269;0.00102992699402406;0.00116476174985821;0.00153608271588201;0.00186490882819869;0.00229564725234541;0.00140550898923533;0.00187872252206335;0.00209870879134675;0.00237421637966941;0.00249683918257878;0.0027179566948212;0.00287765136194796;0.00323536160952201;0.00314965135524184;0.0039955055636219;0.00295376821702645;0.00375051214875976];
  x1_step1_ymin = -1;
  
  % Layer 1
  b1 = [2.6038097140948006647;-3.5433413006104701459;-1.2487896169387784351;-0.71701674447844099269;-5.5629657562134520177];
  IW1_1 = [-2.2255620915207359189 3.5625817951231497638 -3.530889307543219946 1.7674220571749568176 1.2901735385462085315 0.30966458446834416174 -1.2117079639990684381 1.6333174395626293141 -2.8701887923331690367 0.72978540561398985709 3.3342929058979495771 0.34849878173382980995 -0.22282203196560967928 1.4284181879554589401 -1.4416049942739996848 1.6473413671822991766 -0.6125237275371705481 0.29810325376787089047 0.37247071355683114557 -1.3460743876165213173;2.906306573699215523 -6.0641810184801787642 -0.33383882922480884181 -3.612824032619169401 1.3189543091152355903 -2.9878567220930136727 -1.2882798942736188863 -1.5442629174480737575 -5.2965641525242483922 -2.8692302108940541672 2.4383469331820988302 3.9783142020102428837 -2.462433842402571571 0.74088093526603571171 0.32686432020418165756 -2.3362898327016230482 0.96659783822336498016 0.11837626090199369899 5.594287397199210865 -2.8487321330738653025;1.4581193602686783883 3.3383541663580742487 2.8755449494606706295 1.0324578111035935812 1.0981865443016545214 1.1517749927943581323 -0.23453899316742368719 -3.9067883863467480765 -3.21665162589099074 1.6747558609175186017 -0.3615057805043490613 -1.8168762623157674874 3.0276790590463629194 0.99567805010244891939 0.92088610996715714041 0.69276027763117320468 4.1814291463724222453 -0.96276387563407916925 -3.6433206292754518607 1.5084183073386885354;0.42436820494836213769 3.5252444092172097179 -0.8081603040060622023 2.5507363737738852905 -1.1607318957334891163 2.7874544505600744593 0.73521740323684003915 3.3226172749924289818 6.8558964380449198828 -0.92971618644800546605 -0.070444776232043121444 1.1051277707201612177 2.8852134539390603685 -6.7581949439643791422 2.1331664915618842038 0.75761154563497579151 -2.2191883874339657368 -0.26759137542456151726 1.1778630615554988026 -0.95689867887756796527;1.1445953116205043187 3.9425565760202530008 4.3983309952431159928 -1.9419112130415892015 0.6628590413630611744 -0.030006070762079020686 1.2843237098801554286 2.5721101459875752582 -3.9763506184260908327 -1.6141685986998182134 3.9795474675928996788 2.4353485125721423543 0.74394623715422669719 -3.5690034658334428563 -1.9831729258283008477 1.6181378684364178255 -4.2148607098234869284 3.5939274771540539177 0.65039449866958809476 -0.16917145407950348601];
  
  % Layer 2
  b2 = -0.15920946657070356167;
  LW2_1 = [-6.3652625931635817835 11.201027839664156716 -7.6558334914096661805 -11.464378253258209028 -10.110939500422601256];
  
  % ===== SIMULATION ========
  
  % Format Input Arguments
  isCellX = iscell(X);
  if ~isCellX, X = {X}; end;
  
  % Dimensions
  TS = size(X,2); % timesteps
  if ~isempty(X)
    Q = size(X{1},2); % samples/series
  else
    Q = 0;
  end
  
  % Allocate Outputs
  Y = cell(1,TS);
  
  % Time loop
  for ts=1:TS
  
    % Input 1
    Xp1 = mapminmax_apply(X{1,ts},x1_step1_gain,x1_step1_xoffset,x1_step1_ymin);
    
    % Layer 1
    a1 = tansig_apply(repmat(b1,1,Q) + IW1_1*Xp1);
    
    % Layer 2
    a2 = logsig_apply(repmat(b2,1,Q) + LW2_1*a1);
    
    % Output 1
    Y{1,ts} = a2;
  end
  
  % Final Delay States
  Xf = cell(1,0);
  Af = cell(2,0);
  
  % Format Output Arguments
  if ~isCellX, Y = cell2mat(Y); end
end

% ===== MODULE FUNCTIONS ========

% Map Minimum and Maximum Input Processing Function
function y = mapminmax_apply(x,settings_gain,settings_xoffset,settings_ymin)
  y = bsxfun(@minus,x,settings_xoffset);
  y = bsxfun(@times,y,settings_gain);
  y = bsxfun(@plus,y,settings_ymin);
end

% Sigmoid Positive Transfer Function
function a = logsig_apply(n)
  a = 1 ./ (1 + exp(-n));
end

% Sigmoid Symmetric Transfer Function
function a = tansig_apply(n)
  a = 2 ./ (1 + exp(-2*n)) - 1;
end
