function [Y,Xf,Af] = tp2a7fa474_6b3e_450c_98d8_f786c0f5a82a(X,~,~)
%TP2A7FA474_6B3E_450C_98D8_F786C0F5A82A neural network simulation function.
%
% Generated by Neural Network Toolbox function genFunction, 31-Aug-2017 11:57:32.
% 
% [Y] = tp2a7fa474_6b3e_450c_98d8_f786c0f5a82a(X,~,~) takes these arguments:
% 
%   X = 1xTS cell, 1 inputs over TS timsteps
%   Each X{1,ts} = 20xQ matrix, input #1 at timestep ts.
% 
% and returns:
%   Y = 1xTS cell of 1 outputs over TS timesteps.
%   Each Y{1,ts} = 1xQ matrix, output #1 at timestep ts.
% 
% where Q is number of samples (or series) and TS is the number of timesteps.

%#ok<*RPMT0>

  % ===== NEURAL NETWORK CONSTANTS =====
  
  % Input 1
  x1_step1_xoffset = [-5432.71936019575;-869.862833785137;-827.302598638524;-443.772627598191;-714.411086543201;-480.21704791122;-777.126138223055;-308.83062096466;-653.051662017855;-389.580111731616;-254.982095212316;-287.565755345299;-375.126829418792;-218.810003102099;-251.643126444166;-319.796556490188;-310.672174072244;-204.435550163945;-158.324230994341;-197.343487209828];
  x1_step1_gain = [0.000193471702868436;0.000632867989749186;0.00106564221979597;0.000997750888431905;0.00137089105853299;0.00172046072827866;0.00151665899401731;0.00273255835343166;0.00192816699683992;0.00237191709373279;0.00442707648453813;0.00359646519879086;0.00297276865939894;0.00492600826026258;0.00330719979527497;0.00368145234991328;0.00334825051970344;0.00421974226135631;0.00627715281361273;0.00572404098867505];
  x1_step1_ymin = -1;
  
  % Layer 1
  b1 = [2.3999222329384011232;2.4701331367709480347;1.2734701245395336766;-4.2563647814104834666;2.5212942010963450556];
  IW1_1 = [-0.18766218991862407273 -0.51818687283222131246 0.20681691086426379211 -0.49012788057052492086 0.17393133688871484366 -0.31707335388940083298 -0.21115736680891442067 -0.481096238964762557 0.6833579116883884419 0.018673348504412316806 -0.434654205463448573 0.21032376826508916712 0.10838823442220703319 -0.014601581646276720269 -0.25898383870527164063 -0.31615247549226549451 0.62178575490086918087 0.080435090223087632455 0.28774401802720578347 0.43782278145395181479;-1.2779823332241813105 6.2665564775398179265 -1.214889794178789284 2.2026611287357651392 -1.4105984536026399123 -0.14613970990697439101 3.4781874136370811712 2.6048460372124342399 2.0423987730855168721 -1.4164050604062765615 1.0767825164156943352 0.4272004272573382555 0.031586349956189405108 1.8573907579742412466 1.77370559755858892 0.42024878753434014023 0.56628833011085877303 -0.88709545311237358867 1.7821275528163209589 0.84519294279172096918;1.2985258603229852259 -0.48853068249220499286 3.467499454369217915 -1.1885605491298627534 3.9410157721842775658 0.64021215031682765506 -0.65199037565317197185 -0.32145717789089250926 -5.0195698081992805584 2.9240230143784784467 -3.8632075335751077105 2.7576980979933622962 -4.2507087158322871545 1.2764316707834768572 1.1126245486073513824 -0.35678787248851423497 -0.22975883808543454134 0.17898993068461102607 -1.0206131866561394261 -0.87862361062914173804;1.426905715530795371 -1.739161721315418907 0.60453149690001450889 2.0989939264180663692 2.0668267127907358465e-05 0.17148234497942205223 -0.61212003723274122091 0.21167159270668986504 -0.74457968539197660895 0.047172424615552474569 -0.36826211704546246706 -0.18348650987497169829 0.099828551158156628165 -0.40482365058809682834 0.81050562106808599072 -0.41256327472152637403 0.23736778060722735217 0.38292394306211630095 -0.29949785536229323046 -0.26509798634462844458;1.3566311557406645072 -1.7099968590475869146 -0.68075052969085803056 -0.36021267090316233528 -0.074837459292678903955 -0.082276022343491975186 0.82911494815051944851 -0.42884040571773790473 0.31818727386858652872 0.51368710890894719867 0.36922030520709125945 0.21271774790227804264 0.175051449451970903 -0.5097744179020138322 -0.46005980140619878727 0.014703822318996313812 -0.22041549108467020646 0.22671189089503823721 0.10734297824344979366 -0.16730065873334318272];
  
  % Layer 2
  b2 = -1.5912474933171485425;
  LW2_1 = [-2.4107219506101009721 -9.0995381673430291158 -9.5070565492026819499 2.7276820908837309254 -1.2816561633958838406];
  
  % ===== SIMULATION ========
  
  % Format Input Arguments
  isCellX = iscell(X);
  if ~isCellX, X = {X}; end;
  
  % Dimensions
  TS = size(X,2); % timesteps
  if ~isempty(X)
    Q = size(X{1},2); % samples/series
  else
    Q = 0;
  end
  
  % Allocate Outputs
  Y = cell(1,TS);
  
  % Time loop
  for ts=1:TS
  
    % Input 1
    Xp1 = mapminmax_apply(X{1,ts},x1_step1_gain,x1_step1_xoffset,x1_step1_ymin);
    
    % Layer 1
    a1 = tansig_apply(repmat(b1,1,Q) + IW1_1*Xp1);
    
    % Layer 2
    a2 = logsig_apply(repmat(b2,1,Q) + LW2_1*a1);
    
    % Output 1
    Y{1,ts} = a2;
  end
  
  % Final Delay States
  Xf = cell(1,0);
  Af = cell(2,0);
  
  % Format Output Arguments
  if ~isCellX, Y = cell2mat(Y); end
end

% ===== MODULE FUNCTIONS ========

% Map Minimum and Maximum Input Processing Function
function y = mapminmax_apply(x,settings_gain,settings_xoffset,settings_ymin)
  y = bsxfun(@minus,x,settings_xoffset);
  y = bsxfun(@times,y,settings_gain);
  y = bsxfun(@plus,y,settings_ymin);
end

% Sigmoid Positive Transfer Function
function a = logsig_apply(n)
  a = 1 ./ (1 + exp(-n));
end

% Sigmoid Symmetric Transfer Function
function a = tansig_apply(n)
  a = 2 ./ (1 + exp(-2*n)) - 1;
end
