function [Y,Xf,Af] = tp313987f1_72df_434a_b05b_d6c1b9b80a2a(X,~,~)
%TP313987F1_72DF_434A_B05B_D6C1B9B80A2A neural network simulation function.
%
% Generated by Neural Network Toolbox function genFunction, 02-Sep-2017 18:08:34.
% 
% [Y] = tp313987f1_72df_434a_b05b_d6c1b9b80a2a(X,~,~) takes these arguments:
% 
%   X = 1xTS cell, 1 inputs over TS timsteps
%   Each X{1,ts} = 20xQ matrix, input #1 at timestep ts.
% 
% and returns:
%   Y = 1xTS cell of 1 outputs over TS timesteps.
%   Each Y{1,ts} = 1xQ matrix, output #1 at timestep ts.
% 
% where Q is number of samples (or series) and TS is the number of timesteps.

%#ok<*RPMT0>

  % ===== NEURAL NETWORK CONSTANTS =====
  
  % Input 1
  x1_step1_xoffset = [-1710.79601884287;-2767.31086728677;-1769.06834334395;-1424.63292253515;-1115.63541033651;-861.953076142262;-996.664725988399;-421.625702789082;-721.553885286545;-557.274532479569;-502.132109545498;-541.94423526482;-462.745727182164;-167.207345824961;-344.528961662819;-294.401776402707;-391.010406370092;-285.680184537931;-174.294824484575;-303.609020442443];
  x1_step1_gain = [0.000202107905561193;0.000554219398814734;0.000742185534904078;0.0010185341647551;0.00103332655312912;0.00147681597144009;0.00118221307527392;0.00265958726683854;0.00125235891924472;0.00165285753177999;0.00232860128237176;0.00188013184297681;0.0019882242796929;0.00479968082327761;0.00252047169225137;0.00363117206158379;0.00272984263620499;0.0038365195160895;0.00502254586493022;0.00330771328744475];
  x1_step1_ymin = -1;
  
  % Layer 1
  b1 = [-0.6834368243549089339;-1.3385328528355755484;-1.4156472173542338222;3.8064932507990159039;-2.0242365497185761392];
  IW1_1 = [-2.9842963027181808044 6.9067732907895473815 -3.9700451633712114941 -0.0091344370342834862314 4.6593265554111962246 -2.0834824800137261569 1.0363113333708369179 -2.7892133959083182937 -3.3839464644723329378 0.1689632275097503189 -0.18330408666762715297 -0.25208719928187339754 1.3182297691687097085 3.6050427410987806454 -4.994831631382081305 -1.7971855451391227643 3.8789984235399330714 2.1884680331608539205 -0.11952499291642226797 -1.0700690299512234382;-1.5751541256646133249 -1.1714991765288564896 -2.4210848235765998204 3.6800285067229765446 -0.62784898548984102717 -6.0669568262102098188 -0.046040420401634932213 1.0176794842445364697 -0.59060957197335650637 3.0456478671567852601 2.3435599895685008676 4.2451550455345596902 -4.01238007919643902 -3.5343010490616566521 6.8653171941369954823 3.8290423696967743616 -3.2715761113811789862 -2.0670610797128627922 2.3412513067273734713 -3.1527120009597671135;1.538193772219565103 0.1815716109428797409 2.5584539909566506033 1.0546937196511267931 2.3008879197170184483 -0.7446879768364784713 -1.7334693778737519931 1.8363667358791573303 1.0357067146798408785 -0.46911798604683740965 2.0506445293264889962 -1.814898766091124882 3.8510837864351019633 0.05816236928742959944 -2.0942465887816452685 0.46015605006951398881 0.6077472661721083913 -1.421799591093444004 -0.014023263380690431656 3.5694797073608386384;3.1339719379794237497 -0.82481239935487726811 -1.3257057382880597096 -1.2900966828477788972 -2.2770966119761526514 -0.81983146632467518433 -0.86039615444065697947 -0.18433788797575703655 1.9861861775233748961 1.0580417921454861041 -0.23804022324081897111 -1.373616901348032604 0.46598114535524304269 -2.0118655591203324917 0.32035094487476850622 -0.064182069745241196457 1.817412165359239884 1.0038778445328697675 -0.28732625402189998498 -2.2697057186152669317;-0.061114911070768891677 1.1647703319054203419 -0.35890473905018499545 0.81436686241284905741 -0.48830556805988623026 -1.0699215612960877309 2.0235506744644147226 0.63700436982896946336 2.0399290674297159143 0.20408299597826098926 -1.2530803307393307833 1.6118250597254233369 -1.8891183083631151174 0.24128413039452761835 2.3777325334417400704 -3.0281328269854306257 -1.9759740127043399216 -0.94887883851821630543 -2.0625051135248169132 -1.2146640981126355374];
  
  % Layer 2
  b2 = -4.9359391697819621214;
  LW2_1 = [-12.894056528055259037 -5.4198115020907611239 -9.4579367232610742633 -13.110384729684264826 -11.004119003322070824];
  
  % ===== SIMULATION ========
  
  % Format Input Arguments
  isCellX = iscell(X);
  if ~isCellX, X = {X}; end;
  
  % Dimensions
  TS = size(X,2); % timesteps
  if ~isempty(X)
    Q = size(X{1},2); % samples/series
  else
    Q = 0;
  end
  
  % Allocate Outputs
  Y = cell(1,TS);
  
  % Time loop
  for ts=1:TS
  
    % Input 1
    Xp1 = mapminmax_apply(X{1,ts},x1_step1_gain,x1_step1_xoffset,x1_step1_ymin);
    
    % Layer 1
    a1 = tansig_apply(repmat(b1,1,Q) + IW1_1*Xp1);
    
    % Layer 2
    a2 = logsig_apply(repmat(b2,1,Q) + LW2_1*a1);
    
    % Output 1
    Y{1,ts} = a2;
  end
  
  % Final Delay States
  Xf = cell(1,0);
  Af = cell(2,0);
  
  % Format Output Arguments
  if ~isCellX, Y = cell2mat(Y); end
end

% ===== MODULE FUNCTIONS ========

% Map Minimum and Maximum Input Processing Function
function y = mapminmax_apply(x,settings_gain,settings_xoffset,settings_ymin)
  y = bsxfun(@minus,x,settings_xoffset);
  y = bsxfun(@times,y,settings_gain);
  y = bsxfun(@plus,y,settings_ymin);
end

% Sigmoid Positive Transfer Function
function a = logsig_apply(n)
  a = 1 ./ (1 + exp(-n));
end

% Sigmoid Symmetric Transfer Function
function a = tansig_apply(n)
  a = 2 ./ (1 + exp(-2*n)) - 1;
end
