function [Y,Xf,Af] = tp6161e045_c89c_4463_a041_5f27dfe79f1d(X,~,~)
%TP6161E045_C89C_4463_A041_5F27DFE79F1D neural network simulation function.
%
% Generated by Neural Network Toolbox function genFunction, 02-Sep-2017 16:40:45.
% 
% [Y] = tp6161e045_c89c_4463_a041_5f27dfe79f1d(X,~,~) takes these arguments:
% 
%   X = 1xTS cell, 1 inputs over TS timsteps
%   Each X{1,ts} = 20xQ matrix, input #1 at timestep ts.
% 
% and returns:
%   Y = 1xTS cell of 1 outputs over TS timesteps.
%   Each Y{1,ts} = 1xQ matrix, output #1 at timestep ts.
% 
% where Q is number of samples (or series) and TS is the number of timesteps.

%#ok<*RPMT0>

  % ===== NEURAL NETWORK CONSTANTS =====
  
  % Input 1
  x1_step1_xoffset = [-2001.76879548539;-2528.40271623793;-1416.92748927618;-923.044887924525;-742.627689023617;-590.342170311173;-636.877630731671;-474.328050496926;-408.756773605246;-607.267828431689;-597.15835836911;-384.721680725402;-357.743301501273;-305.701917871579;-262.500890231158;-420.955237007922;-306.924499680685;-299.148398757015;-374.938438931834;-382.085749121047];
  x1_step1_gain = [0.000250772026915415;0.000457175383291266;0.000795694570296745;0.000975455655635303;0.00136867839470428;0.00177765334299387;0.00147664952758212;0.00196526984478521;0.00211681540578919;0.00191395299404992;0.0021380341111501;0.00313745816598816;0.00239499394158854;0.00262802245354372;0.0034029937722698;0.00307580218448476;0.0042034220046531;0.00353937526659762;0.00305696135696247;0.00320422591704689];
  x1_step1_ymin = -1;
  
  % Layer 1
  b1 = [-1.2498595375194407886;-0.83709817378316986325;-0.96228674993235707724;-1.5150566106926224297;1.3929256724586285277];
  IW1_1 = [1.4802241298202312159 3.5200068804987569848 -1.3390985114572178105 0.78528246314771688041 -0.92462968425403246897 -0.82194644733320487706 -0.76243510221357535528 -1.4448411872662316746 0.34071328480746004841 3.0556327447816706844 1.3426947788097594039 1.1295254796119620355 -6.3406693972183081343 -2.0941413639248804834 -0.46862688562729376551 0.57946698290202791615 0.2080163182778909936 0.22290519409584999555 0.67385631907748999581 0.51643493773963622395;-0.86551127049887521814 2.3566338626346072793 -1.9168155622815872263 2.3411726722278030088 -1.0520360510116848474 0.17076072520865157034 -3.2130809596300475839 -0.57550441670447294307 -4.1413243392556760014 1.6049225513288636336 2.3171932399710102324 -0.72713428513663147523 -0.41064742691427852384 -0.99928957529866069276 0.106191521171057221 -2.6930947617058973442 -0.60800808753894208802 1.7766411988281705092 0.5640512950795962821 -0.53272978084441091617;0.26127939815144579638 3.5854854255095203186 -0.81286308498976744819 -0.16688891504690397949 -0.637341381507653848 -2.2839637614992929215 -0.75837486554566713171 1.187682483819268775 -0.36497035757469320494 1.759236192291145251 -0.76262689560130259014 -0.13997626351896474972 -5.2238875967087574637 0.72379432019372524909 0.75760689450887541696 1.7048957602345484741 0.55206183967746524921 -0.95239420598387347638 1.0110898431455732638 -1.0965170500402456888;-1.9712366014781654844 5.4024375218710831703 -0.38670957103999537008 1.8528743278321531118 -1.7084343278689395618 2.4871396797973428505 -1.9918122813395759962 -0.46048915419326708065 1.753916387848780678 1.7413605496226300939 -0.54926708904831300639 0.63668703947383387121 2.1231830059762244467 -0.6650260280306199423 -0.93728644278956363411 -1.4901384266468062911 -1.7516683591507336004 -1.3026223159723846479 -1.6706799557892029195 -0.012126440342384178783;-0.7239973677458676482 0.80971649988947647092 -0.93818000891762154403 -0.26039126811696788888 0.4776212493725239816 -0.65255633365304588356 0.043046082226693371808 0.29551531060594132816 1.172294998066952143 -0.79713509960087014505 -0.14055490522582780866 -0.54901360634733209487 0.31381912176542520188 0.80788529769293226934 0.66473926770015490106 -0.053132224532304393738 0.0078256845818609165055 0.67125802494396857867 -0.095432405150681354211 -0.12030225845850388289];
  
  % Layer 2
  b2 = -1.0585952536802707424;
  LW2_1 = [8.5796302098208769848 5.8672891664376631837 5.850435446114445881 5.8016575845614344331 -1.7526546018772288793];
  
  % ===== SIMULATION ========
  
  % Format Input Arguments
  isCellX = iscell(X);
  if ~isCellX, X = {X}; end;
  
  % Dimensions
  TS = size(X,2); % timesteps
  if ~isempty(X)
    Q = size(X{1},2); % samples/series
  else
    Q = 0;
  end
  
  % Allocate Outputs
  Y = cell(1,TS);
  
  % Time loop
  for ts=1:TS
  
    % Input 1
    Xp1 = mapminmax_apply(X{1,ts},x1_step1_gain,x1_step1_xoffset,x1_step1_ymin);
    
    % Layer 1
    a1 = tansig_apply(repmat(b1,1,Q) + IW1_1*Xp1);
    
    % Layer 2
    a2 = logsig_apply(repmat(b2,1,Q) + LW2_1*a1);
    
    % Output 1
    Y{1,ts} = a2;
  end
  
  % Final Delay States
  Xf = cell(1,0);
  Af = cell(2,0);
  
  % Format Output Arguments
  if ~isCellX, Y = cell2mat(Y); end
end

% ===== MODULE FUNCTIONS ========

% Map Minimum and Maximum Input Processing Function
function y = mapminmax_apply(x,settings_gain,settings_xoffset,settings_ymin)
  y = bsxfun(@minus,x,settings_xoffset);
  y = bsxfun(@times,y,settings_gain);
  y = bsxfun(@plus,y,settings_ymin);
end

% Sigmoid Positive Transfer Function
function a = logsig_apply(n)
  a = 1 ./ (1 + exp(-n));
end

% Sigmoid Symmetric Transfer Function
function a = tansig_apply(n)
  a = 2 ./ (1 + exp(-2*n)) - 1;
end
