function [Y,Xf,Af] = tp61cb1930_9a42_4842_89f2_a7fdc59dd330(X,~,~)
%TP61CB1930_9A42_4842_89F2_A7FDC59DD330 neural network simulation function.
%
% Generated by Neural Network Toolbox function genFunction, 06-Sep-2017 17:31:46.
% 
% [Y] = tp61cb1930_9a42_4842_89f2_a7fdc59dd330(X,~,~) takes these arguments:
% 
%   X = 1xTS cell, 1 inputs over TS timsteps
%   Each X{1,ts} = 20xQ matrix, input #1 at timestep ts.
% 
% and returns:
%   Y = 1xTS cell of 1 outputs over TS timesteps.
%   Each Y{1,ts} = 1xQ matrix, output #1 at timestep ts.
% 
% where Q is number of samples (or series) and TS is the number of timesteps.

%#ok<*RPMT0>

  % ===== NEURAL NETWORK CONSTANTS =====
  
  % Input 1
  x1_step1_xoffset = [-1660.06224852336;-1969.79757456081;-1377.69545894784;-758.1190433714;-1005.44642162532;-629.490616020365;-447.378118638314;-450.68658711172;-682.765477573451;-458.333844314364;-622.812481590513;-410.039334332745;-387.578117402334;-429.961560001117;-321.30532996289;-359.072122656308;-277.03733689747;-301.078315473948;-400.794724948394;-285.384637074672];
  x1_step1_gain = [0.000244911356138662;0.000507837665104201;0.000859080031338269;0.00102992699402406;0.00116476174985821;0.00153608271588201;0.00186490882819872;0.00229564725234535;0.00140550898923534;0.00187872252206333;0.00209870879134678;0.00237421637966942;0.00249683918257883;0.00271795669482114;0.00287765136194785;0.00323536160952169;0.0031496513552421;0.00399550556362211;0.00295376821702647;0.00375051214875977];
  x1_step1_ymin = -1;
  
  % Layer 1
  b1 = [-1.9234487248275939919;2.7149210864688098077;-2.2900341623812736636;-0.045783689771935982826;-0.80705739052934077904];
  IW1_1 = [-2.0599129846483186235 1.223344580829579753 0.083871422632115597007 1.1974612364967578415 0.22998462452318832461 1.2328753902397902031 0.17057421452531620898 -0.73302706020168661993 0.81308582221052905226 0.62252440012471499386 -1.4264772562693959213 -0.31956304971059246167 0.44980746750036387782 0.48618108361262629691 0.80413726439533295132 -2.1845769993959733846 0.93843674887092998205 1.5839406302837615304 0.801883727523093226 0.50225392633412480059;-0.30889374296788713048 4.605415985648272148 -4.0198288867706892802 -0.20461059699582334614 1.4558995826357192804 0.39460910682702338148 -1.5211968325374247701 -1.1984108926225254255 5.0144093376095710823 0.95024708710099670128 -2.2532192727933240128 -1.1356989177513630018 -1.6496140181562779503 3.1916722878340237912 1.3206305128510955615 -2.0236580665806638279 0.93318875698824621523 -2.2514601225429773379 1.4937732994013084298 -1.2409356938152422689;-2.6167552322842571044 4.7850854272140876944 -1.3834282293796995589 2.7368277709486559246 -1.4410047993711481151 1.6268934576249363122 -1.5606099207878549873 -0.71267678783726484681 -3.8475533943282629323 0.65328089907270736614 0.94745941512611275837 1.3562352496815546221 -1.2309733753993974403 1.2958228193482752566 0.67536368447224814915 -0.90182351580940733893 0.80894831756215435092 -0.57803387600497324605 2.3765451891849522781 -1.6603659060026918493;-0.49596489034689272835 -2.2511051491278282199 -1.9827664280352101933 -1.701663480312764154 0.61546549779898840349 -1.8692935139283310964 0.46655264042547162084 1.3334662794560638854 2.8123421696451549323 -1.0459281076511652842 0.16812373846419037537 0.17047736729707177461 1.7514697132848613403 -3.5643599279804325519 1.6172889562762051696 0.3967455108752409032 0.29483063918766838629 -0.83063237464512251762 -1.1482721416030419181 -0.097118016328309436647;-0.49172091185716382267 -1.0048076511833139435 -0.77615703513625056154 0.21989869987949467456 -0.58187224892283306854 -0.57482144658909473112 -0.12459856181867554059 0.2359131667175613789 0.34220069887067050551 -0.51339720334653349276 -0.10284721126026401261 0.076940303816226227052 1.0703715299481266765 -0.26981726307502112983 0.15364473144449353192 0.1911566771885860605 0.88958249527387489586 -0.47767547840541219051 0.5629057607759604398 -0.020556756056899279372];
  
  % Layer 2
  b2 = -0.68441275009225444048;
  LW2_1 = [3.7000216971720556458 9.0984043277505914915 7.1796767203883797848 -7.2544723707300002857 -1.3477034653273245457];
  
  % ===== SIMULATION ========
  
  % Format Input Arguments
  isCellX = iscell(X);
  if ~isCellX, X = {X}; end;
  
  % Dimensions
  TS = size(X,2); % timesteps
  if ~isempty(X)
    Q = size(X{1},2); % samples/series
  else
    Q = 0;
  end
  
  % Allocate Outputs
  Y = cell(1,TS);
  
  % Time loop
  for ts=1:TS
  
    % Input 1
    Xp1 = mapminmax_apply(X{1,ts},x1_step1_gain,x1_step1_xoffset,x1_step1_ymin);
    
    % Layer 1
    a1 = tansig_apply(repmat(b1,1,Q) + IW1_1*Xp1);
    
    % Layer 2
    a2 = logsig_apply(repmat(b2,1,Q) + LW2_1*a1);
    
    % Output 1
    Y{1,ts} = a2;
  end
  
  % Final Delay States
  Xf = cell(1,0);
  Af = cell(2,0);
  
  % Format Output Arguments
  if ~isCellX, Y = cell2mat(Y); end
end

% ===== MODULE FUNCTIONS ========

% Map Minimum and Maximum Input Processing Function
function y = mapminmax_apply(x,settings_gain,settings_xoffset,settings_ymin)
  y = bsxfun(@minus,x,settings_xoffset);
  y = bsxfun(@times,y,settings_gain);
  y = bsxfun(@plus,y,settings_ymin);
end

% Sigmoid Positive Transfer Function
function a = logsig_apply(n)
  a = 1 ./ (1 + exp(-n));
end

% Sigmoid Symmetric Transfer Function
function a = tansig_apply(n)
  a = 2 ./ (1 + exp(-2*n)) - 1;
end
