function [Y,Xf,Af] = tp641e8451_d8c5_4f26_9b6a_ba04bd74663f(X,~,~)
%TP641E8451_D8C5_4F26_9B6A_BA04BD74663F neural network simulation function.
%
% Generated by Neural Network Toolbox function genFunction, 04-Sep-2017 21:28:56.
% 
% [Y] = tp641e8451_d8c5_4f26_9b6a_ba04bd74663f(X,~,~) takes these arguments:
% 
%   X = 1xTS cell, 1 inputs over TS timsteps
%   Each X{1,ts} = 20xQ matrix, input #1 at timestep ts.
% 
% and returns:
%   Y = 1xTS cell of 1 outputs over TS timesteps.
%   Each Y{1,ts} = 1xQ matrix, output #1 at timestep ts.
% 
% where Q is number of samples (or series) and TS is the number of timesteps.

%#ok<*RPMT0>

  % ===== NEURAL NETWORK CONSTANTS =====
  
  % Input 1
  x1_step1_xoffset = [-5466.61789079662;-862.937878923585;-1028.71862143181;-451.7109715429;-692.538815519998;-441.043793232208;-783.667639824721;-311.950474474655;-346.375264292304;-380.160028036842;-183.589471391052;-268.743398235183;-277.584610398702;-242.574763141831;-313.061223281959;-302.321350914761;-296.41990859125;-191.974128700858;-162.786711803901;-155.930294068994];
  x1_step1_gain = [0.000192953812201725;0.000635170113819407;0.0010737117105794;0.000992967389065705;0.00140247416929523;0.00179426803546528;0.00152094087103249;0.00262475201653717;0.00199415494766504;0.00251075910029925;0.00454433874041171;0.00378662000738771;0.00302237737948996;0.00448879604138621;0.00366080733460335;0.00363057230533723;0.00381924645546811;0.00427537582274488;0.00592120551781169;0.00602422138644418];
  x1_step1_ymin = -1;
  
  % Layer 1
  b1 = [-1.9701262148217937309;0.4485485863478771984;5.3092603084896552446;-2.5331459061690546619;-3.7123250153609155255];
  IW1_1 = [0.53154742852621728044 0.12067154629547306721 -0.57418850907156371299 -0.37621274534396859091 0.37916665474742422548 -1.1431512118839652903 0.77688376890529309282 1.2605039224553991062 -0.48350440072475409092 -0.50866896578554232633 -0.98170357133147478912 0.37722566592687284404 -0.47706130491302889407 -0.16463665407715832867 0.48394429859243692782 0.67374204644043156343 -0.0048768162786807789377 0.25039962932400344764 0.44830546643603136348 0.0070587460999316162247;-1.5425294998226970478 -2.0651293545220803516 0.81177874212190370695 0.16196549116585332029 -0.3384337483182373596 0.12922350770078777638 -0.92005715932253251399 -0.53253553522176200197 0.052846798866684224771 0.019300619720522153855 -0.38884775113002967295 -0.39477121233962303437 -0.94130128062973905667 -0.60550407185310928249 0.21213593104224839903 -0.036150702782606972119 -0.40935580433980428561 0.52305184445074681676 0.34476907616458324357 0.2993868127564112136;-0.030436377626121589174 3.7167143149345802655 0.66077614143981922012 1.9549633526406113848 1.1432395555135934639 0.78550398767811457912 1.7754863747699838328 2.6266006483408483874 1.0578704893013963773 2.6539797386225183473 3.029975338831457865 0.1033432548906387527 4.0174418114983527772 -1.2879278424214017917 -0.88791422504879047306 -1.5600420645005499409 -0.94593033025321326956 -1.8738061291420655685 0.21526299178807811741 -0.14393716856482607902;1.6031078536731280249 -4.6106926053346626304 -2.4056472883186432732 -5.3328343995417215595 4.1169784930799115941 0.38850360413220752509 -1.3301889395898964796 -2.5374339801986725007 4.8246301119773917776 1.2418464493163343665 0.5800963016039579756 1.1462651719422598529 -0.28450580089707316889 1.1357429060104433649 1.299402760338341567 -0.081705034870390214063 -0.11853128046815050722 0.82721566600830565008 0.0067008097365588506489 0.5359858959636658593;-4.300238949947484457 -0.50655083436422698728 4.5801517782929597189 0.13760634078268901836 -6.6862963090309648351 -0.17461823386366687183 3.3043485097754770052 2.3669758417894137814 -6.2063294508948834149 -2.972245010697740053 -5.2094430312447901343 -4.9238673842154589977 -6.9059674241112700699 2.2558955203794344158 0.26225758262454812453 -0.70582391676145728177 -1.3572260914797722453 -1.6695683664014622227 0.048938757294704947343 -3.0710661661372062881];
  
  % Layer 2
  b2 = -7.0704792564404135291;
  LW2_1 = [5.3172571395831758068 -0.93163827712755109545 -6.644109188348732431 10.548527638636713277 13.428232937722226481];
  
  % ===== SIMULATION ========
  
  % Format Input Arguments
  isCellX = iscell(X);
  if ~isCellX, X = {X}; end;
  
  % Dimensions
  TS = size(X,2); % timesteps
  if ~isempty(X)
    Q = size(X{1},2); % samples/series
  else
    Q = 0;
  end
  
  % Allocate Outputs
  Y = cell(1,TS);
  
  % Time loop
  for ts=1:TS
  
    % Input 1
    Xp1 = mapminmax_apply(X{1,ts},x1_step1_gain,x1_step1_xoffset,x1_step1_ymin);
    
    % Layer 1
    a1 = tansig_apply(repmat(b1,1,Q) + IW1_1*Xp1);
    
    % Layer 2
    a2 = logsig_apply(repmat(b2,1,Q) + LW2_1*a1);
    
    % Output 1
    Y{1,ts} = a2;
  end
  
  % Final Delay States
  Xf = cell(1,0);
  Af = cell(2,0);
  
  % Format Output Arguments
  if ~isCellX, Y = cell2mat(Y); end
end

% ===== MODULE FUNCTIONS ========

% Map Minimum and Maximum Input Processing Function
function y = mapminmax_apply(x,settings_gain,settings_xoffset,settings_ymin)
  y = bsxfun(@minus,x,settings_xoffset);
  y = bsxfun(@times,y,settings_gain);
  y = bsxfun(@plus,y,settings_ymin);
end

% Sigmoid Positive Transfer Function
function a = logsig_apply(n)
  a = 1 ./ (1 + exp(-n));
end

% Sigmoid Symmetric Transfer Function
function a = tansig_apply(n)
  a = 2 ./ (1 + exp(-2*n)) - 1;
end
