function [Y,Xf,Af] = tp6ede3ec6_05f2_4c91_8ea4_34d45402bde7(X,~,~)
%TP6EDE3EC6_05F2_4C91_8EA4_34D45402BDE7 neural network simulation function.
%
% Generated by Neural Network Toolbox function genFunction, 06-Sep-2017 21:37:59.
% 
% [Y] = tp6ede3ec6_05f2_4c91_8ea4_34d45402bde7(X,~,~) takes these arguments:
% 
%   X = 1xTS cell, 1 inputs over TS timsteps
%   Each X{1,ts} = 20xQ matrix, input #1 at timestep ts.
% 
% and returns:
%   Y = 1xTS cell of 1 outputs over TS timesteps.
%   Each Y{1,ts} = 1xQ matrix, output #1 at timestep ts.
% 
% where Q is number of samples (or series) and TS is the number of timesteps.

%#ok<*RPMT0>

  % ===== NEURAL NETWORK CONSTANTS =====
  
  % Input 1
  x1_step1_xoffset = [-3289.74882371951;-1498.84051842406;-977.81800685793;-2473.29678142316;-579.957172766838;-720.151909430014;-474.39999630727;-522.242249232238;-420.226401116415;-417.475292942103;-306.200888877846;-388.367090162115;-291.39584507413;-376.411586177092;-312.430500619517;-321.397730757887;-231.052600123309;-207.605781402894;-300.292838284029;-183.531087713648];
  x1_step1_gain = [0.000377693156370527;0.000577456077299579;0.000763241531595339;0.000656175798642299;0.00207889551360641;0.00132289146378879;0.0021050120182425;0.00188095402340317;0.00237297796658716;0.00258788322162196;0.00300539389135356;0.00292429008303262;0.00346972867854873;0.00273531031890042;0.003119740053355;0.00346508516159048;0.00478122411926416;0.00448287798328073;0.00393490060972037;0.0052117714716067];
  x1_step1_ymin = -1;
  
  % Layer 1
  b1 = [-1.5232290768225829058;0.069064040827409037271;2.2996357176844579584;1.5731488817889924814;-0.56461799048826433189];
  IW1_1 = [3.7564216271478416687 1.3685787068010444312 -1.9533602649604329127 0.037079520069873798949 1.7670355617404986948 1.2859618093341955714 -1.8149683267999878744 -0.23701984631479450227 2.4204936318297680664 -0.9776225841686407847 0.46006019003026582537 -0.37647126040422140836 0.24514719396119066808 1.9484207880523625178 -1.9653776972074681328 -3.5920083904228161664 -1.0344106554354670635 -0.880076423088128168 -0.51408056884203623405 -2.268713429127820369;-3.172912801175976405 -6.0981592897489766969 3.3506217889131528764 -0.44404206268587143036 1.1642403195136143967 -1.78748927268363067 0.22932711022476581775 1.5906660358959889834 -0.91307459777229371678 -0.72460735534030817906 -1.1092572205347475123 -0.0072835212651264115424 0.92011713199222144866 -0.86891638871171983372 2.713032545763512271 1.5121564800423983321 1.271522026680890205 -2.3115616067780409004 0.22672621150211103025 0.14949694549294845203;-2.3819587080528821232 0.0034433842836731707454 -0.12107256593126802802 -2.9173876568695495948 2.7701567020424779919 -0.0091670926203543164762 -3.1624586660028630725 4.374256092859378775 2.4020870262600393374 2.6569848383457190799 -0.82491359610454995099 -1.1537710317351212996 -2.5898228041923276876 0.078316709880845741809 0.1439193180092544766 3.5207318056576810683 -2.3462263873277282578 1.8329150462795056331 0.21330279159310822079 4.3642947507788107941;-2.8817213179927354538 0.077144030057452406268 0.62385065647023263402 -2.1790592218295645743 0.13006886690202937307 0.41636138322861676597 2.4425236722767795783 2.5766156210134036897 0.65207454898584937819 3.6875519605169975179 2.9392842713889035799 1.3672816028462966287 -2.8009912880470335672 0.67564573109710646115 -1.4400612345266869951 -4.0055539445880201654 2.8851077628093872995 -0.80083341585253386974 2.7806540433711890437 -0.63002311243865760648;3.3764723251453743202 1.5270232160451961967 -0.38456005746502980314 3.8446400380613416914 1.3927721972383162452 -1.0931358498853274153 -2.6569502006978393815 -2.0534662187821801638 2.8629857286579638576 -2.5636169326160307413 -0.069777847638383752593 -2.5169614795329717793 -0.42844021692712175309 0.16373552494004850466 2.1502888291037174362 2.1618558663808431497 0.47980855647194903257 1.0066496859524884933 0.13933642974589294239 1.751761082374154288];
  
  % Layer 2
  b2 = -3.0265813829718859473;
  LW2_1 = [7.413964955563264958 -8.9697456059737277201 -9.139831746069276619 -6.6328740912536892083 7.7483256960389939039];
  
  % ===== SIMULATION ========
  
  % Format Input Arguments
  isCellX = iscell(X);
  if ~isCellX, X = {X}; end;
  
  % Dimensions
  TS = size(X,2); % timesteps
  if ~isempty(X)
    Q = size(X{1},2); % samples/series
  else
    Q = 0;
  end
  
  % Allocate Outputs
  Y = cell(1,TS);
  
  % Time loop
  for ts=1:TS
  
    % Input 1
    Xp1 = mapminmax_apply(X{1,ts},x1_step1_gain,x1_step1_xoffset,x1_step1_ymin);
    
    % Layer 1
    a1 = tansig_apply(repmat(b1,1,Q) + IW1_1*Xp1);
    
    % Layer 2
    a2 = logsig_apply(repmat(b2,1,Q) + LW2_1*a1);
    
    % Output 1
    Y{1,ts} = a2;
  end
  
  % Final Delay States
  Xf = cell(1,0);
  Af = cell(2,0);
  
  % Format Output Arguments
  if ~isCellX, Y = cell2mat(Y); end
end

% ===== MODULE FUNCTIONS ========

% Map Minimum and Maximum Input Processing Function
function y = mapminmax_apply(x,settings_gain,settings_xoffset,settings_ymin)
  y = bsxfun(@minus,x,settings_xoffset);
  y = bsxfun(@times,y,settings_gain);
  y = bsxfun(@plus,y,settings_ymin);
end

% Sigmoid Positive Transfer Function
function a = logsig_apply(n)
  a = 1 ./ (1 + exp(-n));
end

% Sigmoid Symmetric Transfer Function
function a = tansig_apply(n)
  a = 2 ./ (1 + exp(-2*n)) - 1;
end
