function [Y,Xf,Af] = tpab4a12a5_6768_42f0_96da_06d43dce461f(X,~,~)
%TPAB4A12A5_6768_42F0_96DA_06D43DCE461F neural network simulation function.
%
% Generated by Neural Network Toolbox function genFunction, 07-Sep-2017 16:26:27.
% 
% [Y] = tpab4a12a5_6768_42f0_96da_06d43dce461f(X,~,~) takes these arguments:
% 
%   X = 1xTS cell, 1 inputs over TS timsteps
%   Each X{1,ts} = 20xQ matrix, input #1 at timestep ts.
% 
% and returns:
%   Y = 1xTS cell of 1 outputs over TS timesteps.
%   Each Y{1,ts} = 1xQ matrix, output #1 at timestep ts.
% 
% where Q is number of samples (or series) and TS is the number of timesteps.

%#ok<*RPMT0>

  % ===== NEURAL NETWORK CONSTANTS =====
  
  % Input 1
  x1_step1_xoffset = [-1874.99930442497;-5454.91534726368;-869.204807020145;-780.471896742374;-460.20555521635;-234.31060487846;-540.291178237133;-572.14271553379;-192.819908210793;-263.800490630849;-498.131136102658;-258.183122033523;-343.80389488191;-190.320782432689;-193.663740648592;-218.521589353921;-225.820325675024;-213.719449945759;-258.858847398805;-176.115238468632];
  x1_step1_gain = [0.000342540442445779;0.000277480746585881;0.000806013241167017;0.00156677380853905;0.00168393926281428;0.0026904652788907;0.00198084992045411;0.00236361816544284;0.00245784730269613;0.00195235680232596;0.00282106579415896;0.00424658079482959;0.00317261769260761;0.00555458687461901;0.00429724736478089;0.0048427063668746;0.00333931608099048;0.00598913897545084;0.0038478300260404;0.00642488839732225];
  x1_step1_ymin = -1;
  
  % Layer 1
  b1 = [1.0297293073555087162;4.2822244445194721507;-1.3616072487950678926;4.7531769628646314274;-2.0362349443403933158];
  IW1_1 = [-0.75971282163910713869 0.38294607847313283377 0.59168869234436693993 0.36402987589806762303 0.43405516880707745164 -1.2212137100321502903 0.016224929361082489343 0.30235559541268774986 1.0894126386288880415 0.46249168966310494344 -0.80749036242554661502 0.59085685375957486265 0.30958478250970156154 0.16432053556519762849 -0.15099161206713693217 0.56004665667483444214 -0.39265934477049602158 -0.55935165420340593467 -0.8071032010181338201 0.089093564760805724068;0.80000597442463516895 3.890640794694978144 0.10439128964222436913 -0.71938798876150411576 3.1073181746523501623 1.5346818318921036095 2.3028184910523878948 -3.2081742618896598174 2.2690104421633798815 4.8036412726279325014 -1.9418371577300101993 1.3568745938919573035 2.1836055114949646239 0.36480357872381480311 -1.2059651655295247075 2.33697244972465068 -2.2501828817896312174 -0.72734177341251327054 -4.1047478407831521352 -0.53124918323402370302;0.073625866882761917265 1.8483658816047352502 -0.85522427284873525632 1.4412865528644804858 0.87294337333303073656 -1.3139578989868534453 0.22673833437210724751 0.27507803856436824352 -0.24668489459791148599 -3.237644826594191283 0.3347348164297527795 -0.44319679465730671408 -0.21514978325363509626 0.52019816078951963689 1.3984327936451865781 -0.62521653548799560607 1.100445253032931392 0.087075843150836246265 2.2720623236266130895 -0.54852372571453156258;3.972316401118594964 2.6595605365473717896 -0.31786128718758688283 1.1631563166105651774 2.4975048521272085189 1.7108799104444152306 -0.15422342510719996844 -2.1848159883928586211 0.14588961851822229709 1.9746665048460694258 -2.5410321271200961846 -0.5062817167462481116 0.51418682335666432426 -0.55392331142658479681 -3.584485991111276082 -0.7641429749952715067 -1.7864294942656704368 -0.67495467598806480058 -1.4154465815307981646 0.42706783966134603814;2.1825834348634747251 4.042050970993933845 1.3309941898313515374 -0.44637234424139365929 -0.49100811750488210228 -1.6223506856040499358 -2.7932772970350678854 1.254102624069201033 2.4782165518043335339 -2.0194264562330812574 -1.631238704377870441 -0.42365660673267679925 -0.66791139326353177186 0.72269935011142050207 1.9609629200599594245 1.610486083896497167 -1.8754016919308540423 0.24093499098340256936 2.2105852625759712105 -0.68546847792177700853];
  
  % Layer 2
  b2 = -3.3699944389673039957;
  LW2_1 = [-3.0339603660755467551 5.4548413767590711032 6.2282366184064370529 8.7117144530446974926 5.5702298404743366689];
  
  % ===== SIMULATION ========
  
  % Format Input Arguments
  isCellX = iscell(X);
  if ~isCellX, X = {X}; end;
  
  % Dimensions
  TS = size(X,2); % timesteps
  if ~isempty(X)
    Q = size(X{1},2); % samples/series
  else
    Q = 0;
  end
  
  % Allocate Outputs
  Y = cell(1,TS);
  
  % Time loop
  for ts=1:TS
  
    % Input 1
    Xp1 = mapminmax_apply(X{1,ts},x1_step1_gain,x1_step1_xoffset,x1_step1_ymin);
    
    % Layer 1
    a1 = tansig_apply(repmat(b1,1,Q) + IW1_1*Xp1);
    
    % Layer 2
    a2 = logsig_apply(repmat(b2,1,Q) + LW2_1*a1);
    
    % Output 1
    Y{1,ts} = a2;
  end
  
  % Final Delay States
  Xf = cell(1,0);
  Af = cell(2,0);
  
  % Format Output Arguments
  if ~isCellX, Y = cell2mat(Y); end
end

% ===== MODULE FUNCTIONS ========

% Map Minimum and Maximum Input Processing Function
function y = mapminmax_apply(x,settings_gain,settings_xoffset,settings_ymin)
  y = bsxfun(@minus,x,settings_xoffset);
  y = bsxfun(@times,y,settings_gain);
  y = bsxfun(@plus,y,settings_ymin);
end

% Sigmoid Positive Transfer Function
function a = logsig_apply(n)
  a = 1 ./ (1 + exp(-n));
end

% Sigmoid Symmetric Transfer Function
function a = tansig_apply(n)
  a = 2 ./ (1 + exp(-2*n)) - 1;
end
