function [Y,Xf,Af] = tpd098b789_87c1_4ad4_aadc_915a62030ea7(X,~,~)
%TPD098B789_87C1_4AD4_AADC_915A62030EA7 neural network simulation function.
%
% Generated by Neural Network Toolbox function genFunction, 03-Sep-2017 14:10:05.
% 
% [Y] = tpd098b789_87c1_4ad4_aadc_915a62030ea7(X,~,~) takes these arguments:
% 
%   X = 1xTS cell, 1 inputs over TS timsteps
%   Each X{1,ts} = 20xQ matrix, input #1 at timestep ts.
% 
% and returns:
%   Y = 1xTS cell of 1 outputs over TS timesteps.
%   Each Y{1,ts} = 1xQ matrix, output #1 at timestep ts.
% 
% where Q is number of samples (or series) and TS is the number of timesteps.

%#ok<*RPMT0>

  % ===== NEURAL NETWORK CONSTANTS =====
  
  % Input 1
  x1_step1_xoffset = [-1660.06224852336;-1969.79757456081;-1377.69545894784;-758.119043371399;-1005.44642162531;-629.490616020365;-447.37811863832;-450.686587111711;-682.765477573462;-458.333844314359;-622.812481590512;-410.039334332748;-387.578117402331;-429.961560001113;-321.305329962882;-359.072122656306;-277.037336897474;-301.078315473946;-400.794724948405;-285.38463707467];
  x1_step1_gain = [0.000244911356138662;0.000507837665104201;0.000859080031338269;0.00102992699402406;0.00116476174985821;0.00153608271588201;0.00186490882819871;0.00229564725234542;0.00140550898923532;0.00187872252206337;0.00209870879134677;0.00237421637966939;0.00249683918257879;0.00271795669482117;0.00287765136194791;0.00323536160952184;0.00314965135524196;0.0039955055636221;0.00295376821702641;0.00375051214875959];
  x1_step1_ymin = -1;
  
  % Layer 1
  b1 = [-5.4403452861659777895;0.62469856989849747997;0.62133296330425102916;-0.0083904118769663506294;-4.0523869446528877347];
  IW1_1 = [-2.0585383539532600139 -5.9030702976817313044 6.3917212316229150559 -0.45553592705982992594 -3.2385095742140315167 0.83986272414400053865 0.078857643406177777012 -1.4508637954251066837 -6.0966496377869212608 -1.1345530240576076064 -0.28934109672973207239 1.0114016318616603218 1.6304310307977609718 -3.2633125248724224043 -1.7729918620579387945 3.2956967608205656184 -1.6352905590335953256 2.8125000367556278746 0.91274873826944058486 1.0476829340455315887;-2.3290251279763820591 1.638983793752784468 1.2700859007662483879 0.43470674392275721054 -0.36660409969584306644 -0.27053165888007973949 -0.16021898982962454183 1.0120565299358510458 0.082641856512484734854 -0.4089582389842332244 -0.29017719782379114424 -0.037383500291231490376 2.1390850276095987326 -2.1147591251977786442 1.3032291571104344108 -0.081955297803547350055 0.46173821340650067491 -1.0714364530919155971 1.0355632376207271061 -0.55391119787930731544;-0.72713977578215804876 4.4851851690291768548 0.27385586593119815024 1.4967494560453715735 -1.218949692347600422 1.5768954862225230684 -0.7751039010261713269 -2.7592139427036861399 -5.264994686743905028 -0.97772070647421349676 -1.4506131500521086686 -1.5946031141546364029 -2.447555110014850932 6.1056693123187582017 -1.2774718261470126013 0.36552814044808473737 0.87666975717512507504 0.1834209810800488949 -0.11840533314524256947 -0.02386236665464789089;-0.38899851886057129624 5.1726932485451850852 -0.23385828817746343034 4.5319727325282634922 -1.6688076821247934678 3.6046759766705624983 -1.1768448619326785654 -2.6087684629007061865 -2.2544693047043287137 0.49245167396897376877 0.96156159787124706462 1.1351359708956285655 -0.78574439439042764732 -0.97806048539421530652 -0.7864542586834413207 -3.8889675710270603659 3.3599639314981084581 -0.85029137949561783838 7.2333917519385924066 -2.1153325148542005962;-1.7133023201354817822 2.1189536597177940358 5.3152278883477990234 0.35368753869238822585 1.6869502426622504654 -0.54620668611881595389 0.90747075522339715192 -0.67487953602082473292 2.2597814508074582918 0.45804611261501704256 -2.505931676830375654 -1.2974611957858583899 -0.27917583357085823392 -0.86312271097499770889 1.1324231805278166529 -0.51201294349999293409 0.29828912431700910224 -1.4055288767075946321 0.092760437606619297601 2.33385736910485031];
  
  % Layer 2
  b2 = -2.7671938592950939828;
  LW2_1 = [-10.259770672463631058 -4.1943288515052730148 12.052904548646194982 8.3240030203356880634 6.8525980610245493807];
  
  % ===== SIMULATION ========
  
  % Format Input Arguments
  isCellX = iscell(X);
  if ~isCellX, X = {X}; end;
  
  % Dimensions
  TS = size(X,2); % timesteps
  if ~isempty(X)
    Q = size(X{1},2); % samples/series
  else
    Q = 0;
  end
  
  % Allocate Outputs
  Y = cell(1,TS);
  
  % Time loop
  for ts=1:TS
  
    % Input 1
    Xp1 = mapminmax_apply(X{1,ts},x1_step1_gain,x1_step1_xoffset,x1_step1_ymin);
    
    % Layer 1
    a1 = tansig_apply(repmat(b1,1,Q) + IW1_1*Xp1);
    
    % Layer 2
    a2 = logsig_apply(repmat(b2,1,Q) + LW2_1*a1);
    
    % Output 1
    Y{1,ts} = a2;
  end
  
  % Final Delay States
  Xf = cell(1,0);
  Af = cell(2,0);
  
  % Format Output Arguments
  if ~isCellX, Y = cell2mat(Y); end
end

% ===== MODULE FUNCTIONS ========

% Map Minimum and Maximum Input Processing Function
function y = mapminmax_apply(x,settings_gain,settings_xoffset,settings_ymin)
  y = bsxfun(@minus,x,settings_xoffset);
  y = bsxfun(@times,y,settings_gain);
  y = bsxfun(@plus,y,settings_ymin);
end

% Sigmoid Positive Transfer Function
function a = logsig_apply(n)
  a = 1 ./ (1 + exp(-n));
end

% Sigmoid Symmetric Transfer Function
function a = tansig_apply(n)
  a = 2 ./ (1 + exp(-2*n)) - 1;
end
