function [Y,Xf,Af] = tpea0b544b_234c_4353_ac3a_193375fef199(X,~,~)
%TPEA0B544B_234C_4353_AC3A_193375FEF199 neural network simulation function.
%
% Generated by Neural Network Toolbox function genFunction, 03-Sep-2017 14:57:59.
% 
% [Y] = tpea0b544b_234c_4353_ac3a_193375fef199(X,~,~) takes these arguments:
% 
%   X = 1xTS cell, 1 inputs over TS timsteps
%   Each X{1,ts} = 20xQ matrix, input #1 at timestep ts.
% 
% and returns:
%   Y = 1xTS cell of 1 outputs over TS timesteps.
%   Each Y{1,ts} = 1xQ matrix, output #1 at timestep ts.
% 
% where Q is number of samples (or series) and TS is the number of timesteps.

%#ok<*RPMT0>

  % ===== NEURAL NETWORK CONSTANTS =====
  
  % Input 1
  x1_step1_xoffset = [-1874.99930442497;-5454.91534726369;-869.204807020145;-780.471896742374;-460.20555521635;-234.310604878461;-540.291178237133;-572.142715533789;-192.819908210792;-263.800490630852;-210.820779921777;-258.183122033523;-286.590370604324;-190.320782432689;-193.663740648593;-194.470619647336;-225.820325675022;-213.71944994575;-258.858847398811;-176.11523846863];
  x1_step1_gain = [0.00034254044244578;0.00027748074658588;0.000806013241167018;0.00156677380853905;0.00168393926281428;0.00269046527889069;0.00198084992045411;0.00236361816544284;0.00245784730269614;0.00195235680232595;0.00282106579415897;0.00424658079482961;0.00317261769260759;0.00555458687461904;0.00429724736478088;0.00484270636687461;0.00333931608099047;0.00598913897545112;0.00384783002604037;0.00642488839732238];
  x1_step1_ymin = -1;
  
  % Layer 1
  b1 = [-0.24645331989346627721;-1.0480400180455353709;-0.64352792706209316353;-0.76274065464924367674;4.2532250059551177657];
  IW1_1 = [0.84444395323964760447 3.3100156191438356856 -2.0101633397832014971 -2.6089639210584198992 -0.93823840615072851001 2.2983960228342046328 -0.37946408328947833777 2.4913818075230387272 -1.2858295627147335871 0.12016559404684185042 -0.39660600910583210243 -0.81075299886262064408 0.38135724167875167945 0.13318836358297947431 -1.4230142553091904567 1.9974664781686146675 0.34230780022544415875 -0.43831788187151576874 0.39655304902330035244 0.47060236433391960942;-3.4839384099277510565 -3.9652425915311217963 0.9871935318885801669 -1.2018310008153787471 -2.0443551999260516361 -0.11732277695085666092 -0.03236322265609224702 1.1056141274608235481 -0.67573898158832734762 1.0097570012502761205 -1.1520528906845224348 0.80786631265542907521 0.62136851524704828087 0.098800690257569309671 -0.36607810168360371827 -0.0063720610322543849713 -0.26513360644903716246 -0.13651529222398772756 -0.53251050276789180238 0.74945729588275589172;2.2175272636326393005 1.99309273864350045 1.1555887235638306887 -2.6085229050621232538 0.54669596810613707571 -2.5175984062111509409 -1.12530988404924015 -0.88476467509559952873 0.8365199256972235542 -1.5751438128727928145 0.84888348594151519233 -1.3218570397966187269 -0.63377606167031741435 -0.014793008239495444162 -1.1432629444675168617 0.25935623105799743282 -1.0413783598275361264 0.88090399718556844366 2.5701021051988934829 -0.41183523908754327003;-0.406598609657571608 -0.032058628666226871018 0.30551380821019646916 -0.049498907529184649201 -0.85621490886572160228 2.6687718661654353802 0.18085280043925169857 -1.004100183423535908 -0.95520939641790958419 -1.2527192149128301146 0.67134402596471431934 -0.50221163253598721798 0.30272724828674402175 -0.8867654001702131028 1.0081249092121853383 0.32704121741254338351 0.43792754353859153493 -0.14111205049118671906 0.5546466385483451722 0.39980754307940880032;1.26248487092644468 1.6927632295867578449 0.68578713509752819988 0.98843657901008019628 2.0051060922057786229 0.90207292876803990556 0.5125453727690473249 -1.8879849618579798154 1.7118200301018779985 4.1848722053984834801 2.8685207099776071082 0.45364720689294252276 -1.5791707452136620748 0.30785636769134394619 -1.3287047748770504096 -1.5984491347231133407 -2.4636639643437003855 0.037381600314586801992 -3.6444450278680458055 -0.85378405378878152732];
  
  % Layer 2
  b2 = -0.63602666286604425672;
  LW2_1 = [6.7271233257039115827 -4.4083738152144826827 3.776872653379800493 3.7250276936112913795 6.6599061578387734883];
  
  % ===== SIMULATION ========
  
  % Format Input Arguments
  isCellX = iscell(X);
  if ~isCellX, X = {X}; end;
  
  % Dimensions
  TS = size(X,2); % timesteps
  if ~isempty(X)
    Q = size(X{1},2); % samples/series
  else
    Q = 0;
  end
  
  % Allocate Outputs
  Y = cell(1,TS);
  
  % Time loop
  for ts=1:TS
  
    % Input 1
    Xp1 = mapminmax_apply(X{1,ts},x1_step1_gain,x1_step1_xoffset,x1_step1_ymin);
    
    % Layer 1
    a1 = tansig_apply(repmat(b1,1,Q) + IW1_1*Xp1);
    
    % Layer 2
    a2 = logsig_apply(repmat(b2,1,Q) + LW2_1*a1);
    
    % Output 1
    Y{1,ts} = a2;
  end
  
  % Final Delay States
  Xf = cell(1,0);
  Af = cell(2,0);
  
  % Format Output Arguments
  if ~isCellX, Y = cell2mat(Y); end
end

% ===== MODULE FUNCTIONS ========

% Map Minimum and Maximum Input Processing Function
function y = mapminmax_apply(x,settings_gain,settings_xoffset,settings_ymin)
  y = bsxfun(@minus,x,settings_xoffset);
  y = bsxfun(@times,y,settings_gain);
  y = bsxfun(@plus,y,settings_ymin);
end

% Sigmoid Positive Transfer Function
function a = logsig_apply(n)
  a = 1 ./ (1 + exp(-n));
end

% Sigmoid Symmetric Transfer Function
function a = tansig_apply(n)
  a = 2 ./ (1 + exp(-2*n)) - 1;
end
