function [Y,Xf,Af] = tpebdb89f8_b431_4753_9d51_6d235d479a35(X,~,~)
%TPEBDB89F8_B431_4753_9D51_6D235D479A35 neural network simulation function.
%
% Generated by Neural Network Toolbox function genFunction, 06-Sep-2017 17:13:14.
% 
% [Y] = tpebdb89f8_b431_4753_9d51_6d235d479a35(X,~,~) takes these arguments:
% 
%   X = 1xTS cell, 1 inputs over TS timsteps
%   Each X{1,ts} = 20xQ matrix, input #1 at timestep ts.
% 
% and returns:
%   Y = 1xTS cell of 1 outputs over TS timesteps.
%   Each Y{1,ts} = 1xQ matrix, output #1 at timestep ts.
% 
% where Q is number of samples (or series) and TS is the number of timesteps.

%#ok<*RPMT0>

  % ===== NEURAL NETWORK CONSTANTS =====
  
  % Input 1
  x1_step1_xoffset = [-6506.15769134605;-1968.46879957595;-1377.69545894784;-758.119043371399;-1005.44642162532;-629.490616020366;-447.378118638323;-450.686587111711;-682.76547757346;-458.333844314374;-622.812481590511;-410.039334332745;-387.57811740234;-429.961560001109;-373.705895665984;-359.072122656293;-277.037336897476;-301.078315473956;-400.794724948412;-285.384637074677];
  x1_step1_gain = [0.000244911356138662;0.000507837665104201;0.000859080031338269;0.00102992699402406;0.00116476174985821;0.00153608271588201;0.0018649088281987;0.0022956472523454;0.00140550898923531;0.00187872252206334;0.00209870879134684;0.00237421637966938;0.00249683918257879;0.00271795669482116;0.00287765136194797;0.00323536160952198;0.00314965135524181;0.00399550556362195;0.00295376821702632;0.00375051214875955];
  x1_step1_ymin = -1;
  
  % Layer 1
  b1 = [4.599175813733584306;-2.1623059912387616599;3.0652112794362755821;-2.4652667642933168146;-4.2402590780095472667];
  IW1_1 = [0.52604047893103966782 -6.937081648042946469 -5.6743047038862695075 -3.6423505406174983001 7.175029170379359833 -2.2758388077111448844 -0.83577515726524997941 3.038688638987469659 15.39829178634635376 6.8799225189059605157 0.1804100472089795737 1.3780216631193522581 -0.94052244094255321727 -0.032146032577931464569 -0.83019735521204196527 -3.7752904534632323319 5.4729683953292660448 -5.0606839667919141235 -5.4490877226926119903 4.6421267141644113607;-0.12588830713178594811 -5.8617827523129033551 -4.409900183765379289 2.9578448969622930242 -2.372661009073104843 2.2169882040258763745 -1.8013154968979117054 -0.97031838411966675473 -1.9400790296893331011 0.63183843510509407615 1.253011894815495797 7.7248325935980108881 -0.32138315030595432376 0.54988335696395840291 1.5234077943874788641 -3.6340357172358510596 1.3654218665877986272 2.9654034725631515101 2.3052136328050463199 1.6798611062288508755;2.1337767429777065864 6.7145948701072581954 -2.3306461389796964134 -1.4321657207884312957 -0.13239126834741510308 -2.3290809058534023279 0.99022594327693613803 -0.019189991318134608927 1.4482457192650342037 0.8524530286111559052 -2.3176314791572409924 -4.3330282881067052614 -1.4947169143079035436 -1.0337750567655250578 4.0961712797939053843 -2.4157426400826462753 -0.20460064714492148807 2.7167997604940903322 -2.2507937871275638386 1.7708864990068400314;1.5247348884083422593 -0.15301035520263850387 -1.5205472835143531984 -1.3988133683327548251 -0.85883964836044346391 -1.4333052050598960037 -0.5561796869260440257 1.8733069026931739032 4.4867274421904532744 0.17163300991835320208 2.0691277279737079198 3.2842014352040411751 2.4919473651078662968 -6.3687067488682211902 -0.79240606897492960048 -2.3992695257660727748 0.63737855932242604151 0.25996495233969962868 1.2202915560429035136 0.71742078050609026096;1.828590845307999313 -0.405165947455022879 1.5178381666000306804 1.8058638096038177601 -1.5969209548941332155 2.3225894602377792353 -2.0188603405560892057 -2.5547952974021534978 -4.6517951997538151687 -1.5926589765039067537 -0.075861861456585105712 -3.6757476013576271257 0.93898808204997130655 4.1639869099812099051 1.3539349666670146277 -0.81742264508873974105 -1.6596310183142564121 1.2444135700669110012 5.3931068363183634062 -3.2473352009352227654];
  
  % Layer 2
  b2 = 3.5795058844287441779;
  LW2_1 = [6.811724705306709815 8.9166714490727141396 -7.4201844153695679651 -13.814502867491800231 8.6045395467908747378];
  
  % ===== SIMULATION ========
  
  % Format Input Arguments
  isCellX = iscell(X);
  if ~isCellX, X = {X}; end;
  
  % Dimensions
  TS = size(X,2); % timesteps
  if ~isempty(X)
    Q = size(X{1},2); % samples/series
  else
    Q = 0;
  end
  
  % Allocate Outputs
  Y = cell(1,TS);
  
  % Time loop
  for ts=1:TS
  
    % Input 1
    Xp1 = mapminmax_apply(X{1,ts},x1_step1_gain,x1_step1_xoffset,x1_step1_ymin);
    
    % Layer 1
    a1 = tansig_apply(repmat(b1,1,Q) + IW1_1*Xp1);
    
    % Layer 2
    a2 = logsig_apply(repmat(b2,1,Q) + LW2_1*a1);
    
    % Output 1
    Y{1,ts} = a2;
  end
  
  % Final Delay States
  Xf = cell(1,0);
  Af = cell(2,0);
  
  % Format Output Arguments
  if ~isCellX, Y = cell2mat(Y); end
end

% ===== MODULE FUNCTIONS ========

% Map Minimum and Maximum Input Processing Function
function y = mapminmax_apply(x,settings_gain,settings_xoffset,settings_ymin)
  y = bsxfun(@minus,x,settings_xoffset);
  y = bsxfun(@times,y,settings_gain);
  y = bsxfun(@plus,y,settings_ymin);
end

% Sigmoid Positive Transfer Function
function a = logsig_apply(n)
  a = 1 ./ (1 + exp(-n));
end

% Sigmoid Symmetric Transfer Function
function a = tansig_apply(n)
  a = 2 ./ (1 + exp(-2*n)) - 1;
end
