function [Y,Xf,Af] = tpeea1a4fa_2d6a_4ed3_9499_1d13585495e9(X,~,~)
%TPEEA1A4FA_2D6A_4ED3_9499_1D13585495E9 neural network simulation function.
%
% Generated by Neural Network Toolbox function genFunction, 02-Sep-2017 13:57:31.
% 
% [Y] = tpeea1a4fa_2d6a_4ed3_9499_1d13585495e9(X,~,~) takes these arguments:
% 
%   X = 1xTS cell, 1 inputs over TS timsteps
%   Each X{1,ts} = 20xQ matrix, input #1 at timestep ts.
% 
% and returns:
%   Y = 1xTS cell of 1 outputs over TS timesteps.
%   Each Y{1,ts} = 1xQ matrix, output #1 at timestep ts.
% 
% where Q is number of samples (or series) and TS is the number of timesteps.

%#ok<*RPMT0>

  % ===== NEURAL NETWORK CONSTANTS =====
  
  % Input 1
  x1_step1_xoffset = [-1710.79601884287;-2767.31086728677;-1769.06834334394;-538.973276654921;-819.861160368641;-861.953076142264;-996.664725988402;-421.625702789085;-721.553885286552;-557.274532479571;-502.132109545491;-541.944235264823;-543.177005191318;-167.207345824934;-448.973304658436;-294.401776402711;-341.63255754098;-285.68018453795;-174.294824484568;-301.038307242077];
  x1_step1_gain = [0.000202107905561193;0.000554219398814733;0.000742185534904078;0.0010185341647551;0.00103332655312913;0.00147681597144009;0.00118221307527392;0.00265958726683853;0.00125235891924471;0.00165285753177999;0.0023286012823718;0.00188013184297681;0.00198822427969293;0.00479968082327782;0.0025204716922513;0.00363117206158387;0.00272984263620493;0.00383651951608926;0.00502254586493012;0.00330771328744475];
  x1_step1_ymin = -1;
  
  % Layer 1
  b1 = [6.234842149639566955;-0.45342012285022764706;-0.68861024572784412801;-1.0093951227369906132;0.15696794444872419483];
  IW1_1 = [1.3862675693068797766 -3.3707226226241959743 0.66736383507211960442 1.8510475760107092391 2.3825636390569311374 -2.0379034033644090051 0.39774309453972750417 0.63947758415928934728 -0.620543368159490627 -0.08181814447778069932 0.011292035680072368825 -0.43861921231622308381 2.5987368584369821001 -1.9317868621499374449 -1.7104290389575549369 -1.0155467474850525811 1.5680118614754412487 -0.63725608972036273947 1.067199479513899929 4.7408059996864393426;3.3010139261670299327 1.4485510475931677732 0.22775907681949814076 1.2521200032698154292 -3.1393550176338216318 -4.2969007917374000272 -0.26402723850248477344 3.6453188656373720633 4.2645207075608748681 -0.40682827323152082055 4.1989078565633297657 -2.1783806485081425031 -3.8574303954480262391 -3.0061320719484019293 0.12557955070019566346 -0.25167782578079367362 -2.2595410627893079969 0.20111938453235939095 0.44740725282728632806 0.90378047639543424019;-0.20308410893189249302 -0.934605844027688204 1.5160179181505981649 1.6044624080051008708 -0.26483885958732461541 -2.2427973717476485938 -1.1556621144480210273 -0.37820304209635652315 -0.046820410320661906556 0.73781639578976920824 -0.080771647312048333589 0.46139573706132797071 0.12449808574097608049 -3.8422337668157298118 0.9211326042916563317 -1.4954062685058535642 -2.5487847261955005607 0.87782026082077801998 -2.4915766166927215686 -4.1753304972989102595;4.2005480226427698298 3.793823460851405649 -0.024639178896450480982 -0.88761586021683658299 -3.5381073533363438521 -0.28687542647162406206 -0.56867048369867656543 1.7315793309545359779 -1.4084012320328109791 -2.1567501380468083738 0.28542057817670452025 1.7787025893444790015 -3.9184403994655174763 -1.5619744254310674592 3.9877893015986787262 -7.1002185133690636221 -4.656784314037271777 1.8241776588642528711 0.56652158764653792744 3.6736741576120017783;-2.3620300012651176402 2.3326308659453816041 1.00980509022715359 2.3744042246400138829 0.40217994724433120401 1.6282428216826498879 -1.5139471279369132173 -0.93372920538359904796 0.99908088960991781047 0.80010943721099003767 -0.91267047753699870327 0.064741895702250321087 -2.0090781719631807256 4.4818567846826402601 -1.4637250954880736131 2.9136265104810545878 0.61507539205675243466 -0.24152581247065851855 1.7978908535367956745 -3.0868463775571508556];
  
  % Layer 2
  b2 = -4.5555078553746231051;
  LW2_1 = [-10.395001229674674548 -7.901231929322523051 5.5970519393517612627 9.7685699551622509063 8.4150684166837717015];
  
  % ===== SIMULATION ========
  
  % Format Input Arguments
  isCellX = iscell(X);
  if ~isCellX, X = {X}; end;
  
  % Dimensions
  TS = size(X,2); % timesteps
  if ~isempty(X)
    Q = size(X{1},2); % samples/series
  else
    Q = 0;
  end
  
  % Allocate Outputs
  Y = cell(1,TS);
  
  % Time loop
  for ts=1:TS
  
    % Input 1
    Xp1 = mapminmax_apply(X{1,ts},x1_step1_gain,x1_step1_xoffset,x1_step1_ymin);
    
    % Layer 1
    a1 = tansig_apply(repmat(b1,1,Q) + IW1_1*Xp1);
    
    % Layer 2
    a2 = logsig_apply(repmat(b2,1,Q) + LW2_1*a1);
    
    % Output 1
    Y{1,ts} = a2;
  end
  
  % Final Delay States
  Xf = cell(1,0);
  Af = cell(2,0);
  
  % Format Output Arguments
  if ~isCellX, Y = cell2mat(Y); end
end

% ===== MODULE FUNCTIONS ========

% Map Minimum and Maximum Input Processing Function
function y = mapminmax_apply(x,settings_gain,settings_xoffset,settings_ymin)
  y = bsxfun(@minus,x,settings_xoffset);
  y = bsxfun(@times,y,settings_gain);
  y = bsxfun(@plus,y,settings_ymin);
end

% Sigmoid Positive Transfer Function
function a = logsig_apply(n)
  a = 1 ./ (1 + exp(-n));
end

% Sigmoid Symmetric Transfer Function
function a = tansig_apply(n)
  a = 2 ./ (1 + exp(-2*n)) - 1;
end
